digraph Tree {
node [shape=box, style="filled, rounded", color="black", fontname="helvetica"] ;
edge [fontname="helvetica"] ;
0 [label="odor_n <= 0.5\ngini = 0.499\nsamples = 5686\nvalue = [2943, 2743]\nclass = 독", fillcolor="#fdf6f2"] ;
1 [label="stalk-root_c <= 0.5\ngini = 0.287\nsamples = 3230\nvalue = [560, 2670]\nclass = 식용", fillcolor="#63b2ea"] ;
0 -> 1 [labeldistance=2.5, labelangle=45, headlabel="True"] ;
2 [label="stalk-root_r <= 0.5\ngini = 0.136\nsamples = 2851\nvalue = [209, 2642]\nclass = 식용", fillcolor="#49a5e7"] ;
1 -> 2 ;
3 [label="odor_a <= 0.5\ngini = 0.054\nsamples = 2717\nvalue = [75, 2642]\nclass = 식용", fillcolor="#3fa0e6"] ;
2 -> 3 ;
4 [label="odor_l <= 0.5\ngini = 0.026\nsamples = 2677\nvalue = [35, 2642]\nclass = 식용", fillcolor="#3c9ee5"] ;
3 -> 4 ;
5 [label="gini = 0.0\nsamples = 2642\nvalue = [0, 2642]\nclass = 식용", fillcolor="#399de5"] ;
4 -> 5 ;
6 [label="gini = 0.0\nsamples = 35\nvalue = [35, 0]\nclass = 독", fillcolor="#e58139"] ;
4 -> 6 ;
7 [label="gini = 0.0\nsamples = 40\nvalue = [40, 0]\nclass = 독", fillcolor="#e58139"] ;
3 -> 7 ;
8 [label="gini = 0.0\nsamples = 134\nvalue = [134, 0]\nclass = 독", fillcolor="#e58139"] ;
2 -> 8 ;
9 [label="ring-number_o <= 0.5\ngini = 0.137\nsamples = 379\nvalue = [351, 28]\nclass = 독", fillcolor="#e78b49"] ;
1 -> 9 ;
10 [label="gini = 0.0\nsamples = 28\nvalue = [0, 28]\nclass = 식용", fillcolor="#399de5"] ;
9 -> 10 ;
11 [label="gini = 0.0\nsamples = 351\nvalue = [351, 0]\nclass = 독", fillcolor="#e58139"] ;
9 -> 11 ;
12 [label="spore-print-color_r <= 0.5\ngini = 0.058\nsamples = 2456\nvalue = [2383, 73]\nclass = 독", fillcolor="#e6853f"] ;
0 -> 12 [labeldistance=2.5, labelangle=-45, headlabel="False"] ;
13 [label="stalk-surface-below-ring_y <= 0.5\ngini = 0.023\nsamples = 2411\nvalue = [2383, 28]\nclass = 독", fillcolor="#e5823b"] ;
12 -> 13 ;
14 [label="cap-surface_g <= 0.5\ngini = 0.003\nsamples = 2377\nvalue = [2373, 4]\nclass = 독", fillcolor="#e58139"] ;
13 -> 14 ;
15 [label="gill-size_b <= 0.5\ngini = 0.003\nsamples = 2376\nvalue = [2373, 3]\nclass = 독", fillcolor="#e58139"] ;
14 -> 15 ;
16 [label="bruises_t <= 0.5\ngini = 0.043\nsamples = 138\nvalue = [135, 3]\nclass = 독", fillcolor="#e6843d"] ;
15 -> 16 ;
17 [label="gini = 0.0\nsamples = 135\nvalue = [135, 0]\nclass = 독", fillcolor="#e58139"] ;
16 -> 17 ;
18 [label="gini = 0.0\nsamples = 3\nvalue = [0, 3]\nclass = 식용", fillcolor="#399de5"] ;
16 -> 18 ;
19 [label="gini = 0.0\nsamples = 2238\nvalue = [2238, 0]\nclass = 독", fillcolor="#e58139"] ;
15 -> 19 ;
20 [label="gini = 0.0\nsamples = 1\nvalue = [0, 1]\nclass = 식용", fillcolor="#399de5"] ;
14 -> 20 ;
21 [label="ring-number_t <= 0.5\ngini = 0.415\nsamples = 34\nvalue = [10, 24]\nclass = 식용", fillcolor="#8bc6f0"] ;
13 -> 21 ;
22 [label="gini = 0.0\nsamples = 24\nvalue = [0, 24]\nclass = 식용", fillcolor="#399de5"] ;
21 -> 22 ;
23 [label="gini = 0.0\nsamples = 10\nvalue = [10, 0]\nclass = 독", fillcolor="#e58139"] ;
21 -> 23 ;
24 [label="gini = 0.0\nsamples = 45\nvalue = [0, 45]\nclass = 식용", fillcolor="#399de5"] ;
12 -> 24 ;
}